digraph Tree {
node [shape=box] ;
0 [label="X[9] <= 0.0\nentropy = 1.0\nsamples = 510\nvalue = [405, 395]"] ;
1 [label="X[5] <= 0.017\nentropy = 0.226\nsamples = 191\nvalue = [11, 290]"] ;
0 -> 1 [labeldistance=2.5, labelangle=45, headlabel="True"] ;
2 [label="X[29] <= -0.0\nentropy = 0.773\nsamples = 32\nvalue = [10, 34]"] ;
1 -> 2 ;
3 [label="X[37] <= -0.891\nentropy = 0.994\nsamples = 15\nvalue = [10, 12]"] ;
2 -> 3 ;
4 [label="entropy = 0.0\nsamples = 8\nvalue = [0, 12]"] ;
3 -> 4 ;
5 [label="entropy = 0.0\nsamples = 7\nvalue = [10, 0]"] ;
3 -> 5 ;
6 [label="entropy = 0.0\nsamples = 17\nvalue = [0, 22]"] ;
2 -> 6 ;
7 [label="X[2] <= -0.26\nentropy = 0.037\nsamples = 159\nvalue = [1, 256]"] ;
1 -> 7 ;
8 [label="entropy = 0.0\nsamples = 121\nvalue = [0, 197]"] ;
7 -> 8 ;
9 [label="X[2] <= -0.259\nentropy = 0.122\nsamples = 38\nvalue = [1, 59]"] ;
7 -> 9 ;
10 [label="entropy = 0.0\nsamples = 1\nvalue = [1, 0]"] ;
9 -> 10 ;
11 [label="entropy = 0.0\nsamples = 37\nvalue = [0, 59]"] ;
9 -> 11 ;
12 [label="X[6] <= 3.583\nentropy = 0.742\nsamples = 319\nvalue = [394, 105]"] ;
0 -> 12 [labeldistance=2.5, labelangle=-45, headlabel="False"] ;
13 [label="X[48] <= 0.0\nentropy = 0.483\nsamples = 278\nvalue = [394, 46]"] ;
12 -> 13 ;
14 [label="X[44] <= 0.107\nentropy = 0.964\nsamples = 45\nvalue = [28, 44]"] ;
13 -> 14 ;
15 [label="entropy = 0.0\nsamples = 29\nvalue = [0, 44]"] ;
14 -> 15 ;
16 [label="entropy = 0.0\nsamples = 16\nvalue = [28, 0]"] ;
14 -> 16 ;
17 [label="X[52] <= 0.001\nentropy = 0.049\nsamples = 233\nvalue = [366, 2]"] ;
13 -> 17 ;
18 [label="X[38] <= 0.0\nentropy = 0.151\nsamples = 54\nvalue = [90, 2]"] ;
17 -> 18 ;
19 [label="entropy = 0.0\nsamples = 1\nvalue = [0, 2]"] ;
18 -> 19 ;
20 [label="entropy = 0.0\nsamples = 53\nvalue = [90, 0]"] ;
18 -> 20 ;
21 [label="entropy = 0.0\nsamples = 179\nvalue = [276, 0]"] ;
17 -> 21 ;
22 [label="entropy = 0.0\nsamples = 41\nvalue = [0, 59]"] ;
12 -> 22 ;
}