digraph Tree {
node [shape=box] ;
0 [label="X[50] <= 0.0\nentropy = 0.999\nsamples = 511\nvalue = [418, 382]"] ;
1 [label="X[2] <= -0.139\nentropy = 0.446\nsamples = 218\nvalue = [32, 312]"] ;
0 -> 1 [labeldistance=2.5, labelangle=45, headlabel="True"] ;
2 [label="entropy = 0.0\nsamples = 150\nvalue = [0, 229]"] ;
1 -> 2 ;
3 [label="X[47] <= -0.0\nentropy = 0.853\nsamples = 68\nvalue = [32, 83]"] ;
1 -> 3 ;
4 [label="entropy = 0.0\nsamples = 7\nvalue = [14, 0]"] ;
3 -> 4 ;
5 [label="X[43] <= 0.001\nentropy = 0.676\nsamples = 61\nvalue = [18, 83]"] ;
3 -> 5 ;
6 [label="X[14] <= 0.325\nentropy = 0.595\nsamples = 59\nvalue = [14, 83]"] ;
5 -> 6 ;
7 [label="X[57] <= 0.0\nentropy = 0.429\nsamples = 56\nvalue = [8, 83]"] ;
6 -> 7 ;
8 [label="entropy = 0.0\nsamples = 40\nvalue = [0, 64]"] ;
7 -> 8 ;
9 [label="entropy = 0.877\nsamples = 16\nvalue = [8, 19]"] ;
7 -> 9 ;
10 [label="entropy = 0.0\nsamples = 3\nvalue = [6, 0]"] ;
6 -> 10 ;
11 [label="entropy = 0.0\nsamples = 2\nvalue = [4, 0]"] ;
5 -> 11 ;
12 [label="X[3] <= 2.258\nentropy = 0.619\nsamples = 293\nvalue = [386, 70]"] ;
0 -> 12 [labeldistance=2.5, labelangle=-45, headlabel="False"] ;
13 [label="X[18] <= 0.004\nentropy = 0.207\nsamples = 249\nvalue = [386, 13]"] ;
12 -> 13 ;
14 [label="X[15] <= 0.0\nentropy = 0.89\nsamples = 25\nvalue = [27, 12]"] ;
13 -> 14 ;
15 [label="entropy = 0.0\nsamples = 12\nvalue = [20, 0]"] ;
14 -> 15 ;
16 [label="X[37] <= 0.022\nentropy = 0.949\nsamples = 13\nvalue = [7, 12]"] ;
14 -> 16 ;
17 [label="entropy = 0.0\nsamples = 8\nvalue = [0, 12]"] ;
16 -> 17 ;
18 [label="entropy = 0.0\nsamples = 5\nvalue = [7, 0]"] ;
16 -> 18 ;
19 [label="X[12] <= 0.017\nentropy = 0.028\nsamples = 224\nvalue = [359, 1]"] ;
13 -> 19 ;
20 [label="X[37] <= 0.0\nentropy = 0.235\nsamples = 13\nvalue = [25, 1]"] ;
19 -> 20 ;
21 [label="entropy = 0.0\nsamples = 12\nvalue = [25, 0]"] ;
20 -> 21 ;
22 [label="entropy = 0.0\nsamples = 1\nvalue = [0, 1]"] ;
20 -> 22 ;
23 [label="entropy = 0.0\nsamples = 211\nvalue = [334, 0]"] ;
19 -> 23 ;
24 [label="entropy = 0.0\nsamples = 44\nvalue = [0, 57]"] ;
12 -> 24 ;
}