digraph Tree {
node [shape=box] ;
0 [label="X[50] <= 0.0\nentropy = 1.0\nsamples = 509\nvalue = [398, 402]"] ;
1 [label="X[34] <= 0.0\nentropy = 0.283\nsamples = 221\nvalue = [17, 329]"] ;
0 -> 1 [labeldistance=2.5, labelangle=45, headlabel="True"] ;
2 [label="X[28] <= -0.109\nentropy = 0.686\nsamples = 64\nvalue = [17, 76]"] ;
1 -> 2 ;
3 [label="entropy = 0.0\nsamples = 6\nvalue = [7, 0]"] ;
2 -> 3 ;
4 [label="X[46] <= -0.002\nentropy = 0.519\nsamples = 58\nvalue = [10, 76]"] ;
2 -> 4 ;
5 [label="X[56] <= -0.352\nentropy = 0.964\nsamples = 14\nvalue = [7, 11]"] ;
4 -> 5 ;
6 [label="entropy = 0.0\nsamples = 8\nvalue = [0, 11]"] ;
5 -> 6 ;
7 [label="entropy = 0.0\nsamples = 6\nvalue = [7, 0]"] ;
5 -> 7 ;
8 [label="X[14] <= 0.291\nentropy = 0.261\nsamples = 44\nvalue = [3, 65]"] ;
4 -> 8 ;
9 [label="entropy = 0.0\nsamples = 41\nvalue = [0, 65]"] ;
8 -> 9 ;
10 [label="entropy = 0.0\nsamples = 3\nvalue = [3, 0]"] ;
8 -> 10 ;
11 [label="entropy = 0.0\nsamples = 157\nvalue = [0, 253]"] ;
1 -> 11 ;
12 [label="X[46] <= 3.442\nentropy = 0.636\nsamples = 288\nvalue = [381, 73]"] ;
0 -> 12 [labeldistance=2.5, labelangle=-45, headlabel="False"] ;
13 [label="X[29] <= 0.0\nentropy = 0.172\nsamples = 249\nvalue = [381, 10]"] ;
12 -> 13 ;
14 [label="X[63] <= 0.001\nentropy = 0.714\nsamples = 32\nvalue = [41, 10]"] ;
13 -> 14 ;
15 [label="X[54] <= 0.103\nentropy = 0.65\nsamples = 7\nvalue = [2, 10]"] ;
14 -> 15 ;
16 [label="entropy = 0.0\nsamples = 5\nvalue = [0, 10]"] ;
15 -> 16 ;
17 [label="entropy = 0.0\nsamples = 2\nvalue = [2, 0]"] ;
15 -> 17 ;
18 [label="entropy = 0.0\nsamples = 25\nvalue = [39, 0]"] ;
14 -> 18 ;
19 [label="entropy = 0.0\nsamples = 217\nvalue = [340, 0]"] ;
13 -> 19 ;
20 [label="entropy = 0.0\nsamples = 39\nvalue = [0, 63]"] ;
12 -> 20 ;
}